digraph Tree {
node [shape=box] ;
0 [label="ShelveLoc_ <= 1.5\ngini = 0.4838\nsamples = 400\nvalue = [236, 164]"] ;
1 [label="Price <= 142.5\ngini = 0.3471\nsamples = 85\nvalue = [19, 66]"] ;
0 -> 1 [labeldistance=2.5, labelangle=45, headlabel="True"] ;
2 [label="Income <= 34.5\ngini = 0.2364\nsamples = 73\nvalue = [10, 63]"] ;
1 -> 2 ;
3 [label="Price <= 109.5\ngini = 0.497\nsamples = 13\nvalue = [6, 7]"] ;
2 -> 3 ;
4 [label="gini = 0.0\nsamples = 6\nvalue = [0, 6]"] ;
3 -> 4 ;
5 [label="Population <= 480.0\ngini = 0.2449\nsamples = 7\nvalue = [6, 1]"] ;
3 -> 5 ;
6 [label="gini = 0.0\nsamples = 6\nvalue = [6, 0]"] ;
5 -> 6 ;
7 [label="gini = 0.0\nsamples = 1\nvalue = [0, 1]"] ;
5 -> 7 ;
8 [label="Advertising <= 6.0\ngini = 0.1244\nsamples = 60\nvalue = [4, 56]"] ;
2 -> 8 ;
9 [label="CompPrice <= 116.5\ngini = 0.2873\nsamples = 23\nvalue = [4, 19]"] ;
8 -> 9 ;
10 [label="Price <= 110.0\ngini = 0.4898\nsamples = 7\nvalue = [3, 4]"] ;
9 -> 10 ;
11 [label="gini = 0.0\nsamples = 4\nvalue = [0, 4]"] ;
10 -> 11 ;
12 [label="gini = 0.0\nsamples = 3\nvalue = [3, 0]"] ;
10 -> 12 ;
13 [label="Price <= 127.0\ngini = 0.1172\nsamples = 16\nvalue = [1, 15]"] ;
9 -> 13 ;
14 [label="gini = 0.0\nsamples = 12\nvalue = [0, 12]"] ;
13 -> 14 ;
15 [label="Price <= 129.0\ngini = 0.375\nsamples = 4\nvalue = [1, 3]"] ;
13 -> 15 ;
16 [label="gini = 0.0\nsamples = 1\nvalue = [1, 0]"] ;
15 -> 16 ;
17 [label="gini = 0.0\nsamples = 3\nvalue = [0, 3]"] ;
15 -> 17 ;
18 [label="gini = 0.0\nsamples = 37\nvalue = [0, 37]"] ;
8 -> 18 ;
19 [label="Population <= 65.5\ngini = 0.375\nsamples = 12\nvalue = [9, 3]"] ;
1 -> 19 ;
20 [label="gini = 0.0\nsamples = 1\nvalue = [0, 1]"] ;
19 -> 20 ;
21 [label="Population <= 379.5\ngini = 0.2975\nsamples = 11\nvalue = [9, 2]"] ;
19 -> 21 ;
22 [label="Urban <= 0.5\ngini = 0.18\nsamples = 10\nvalue = [9, 1]"] ;
21 -> 22 ;
23 [label="Population <= 127.0\ngini = 0.5\nsamples = 2\nvalue = [1, 1]"] ;
22 -> 23 ;
24 [label="gini = 0.0\nsamples = 1\nvalue = [0, 1]"] ;
23 -> 24 ;
25 [label="gini = 0.0\nsamples = 1\nvalue = [1, 0]"] ;
23 -> 25 ;
26 [label="gini = 0.0\nsamples = 8\nvalue = [8, 0]"] ;
22 -> 26 ;
27 [label="gini = 0.0\nsamples = 1\nvalue = [0, 1]"] ;
21 -> 27 ;
28 [label="Price <= 92.5\ngini = 0.4286\nsamples = 315\nvalue = [217, 98]"] ;
0 -> 28 [labeldistance=2.5, labelangle=-45, headlabel="False"] ;
29 [label="Income <= 57.0\ngini = 0.4234\nsamples = 46\nvalue = [14, 32]"] ;
28 -> 29 ;
30 [label="ShelveLoc_ <= 2.5\ngini = 0.42\nsamples = 10\nvalue = [7, 3]"] ;
29 -> 30 ;
31 [label="gini = 0.0\nsamples = 3\nvalue = [0, 3]"] ;
30 -> 31 ;
32 [label="gini = 0.0\nsamples = 7\nvalue = [7, 0]"] ;
30 -> 32 ;
33 [label="Population <= 207.5\ngini = 0.3133\nsamples = 36\nvalue = [7, 29]"] ;
29 -> 33 ;
34 [label="Age <= 56.5\ngini = 0.4688\nsamples = 16\nvalue = [6, 10]"] ;
33 -> 34 ;
35 [label="Price <= 88.0\ngini = 0.2188\nsamples = 8\nvalue = [1, 7]"] ;
34 -> 35 ;
36 [label="gini = 0.0\nsamples = 7\nvalue = [0, 7]"] ;
35 -> 36 ;
37 [label="gini = 0.0\nsamples = 1\nvalue = [1, 0]"] ;
35 -> 37 ;
38 [label="Income <= 102.0\ngini = 0.4688\nsamples = 8\nvalue = [5, 3]"] ;
34 -> 38 ;
39 [label="Income <= 67.5\ngini = 0.2778\nsamples = 6\nvalue = [5, 1]"] ;
38 -> 39 ;
40 [label="gini = 0.0\nsamples = 1\nvalue = [0, 1]"] ;
39 -> 40 ;
41 [label="gini = 0.0\nsamples = 5\nvalue = [5, 0]"] ;
39 -> 41 ;
42 [label="gini = 0.0\nsamples = 2\nvalue = [0, 2]"] ;
38 -> 42 ;
43 [label="Income <= 115.0\ngini = 0.095\nsamples = 20\nvalue = [1, 19]"] ;
33 -> 43 ;
44 [label="gini = 0.0\nsamples = 19\nvalue = [0, 19]"] ;
43 -> 44 ;
45 [label="gini = 0.0\nsamples = 1\nvalue = [1, 0]"] ;
43 -> 45 ;
46 [label="Advertising <= 13.5\ngini = 0.3703\nsamples = 269\nvalue = [203, 66]"] ;
28 -> 46 ;
47 [label="CompPrice <= 124.5\ngini = 0.2991\nsamples = 224\nvalue = [183, 41]"] ;
46 -> 47 ;
48 [label="Price <= 106.5\ngini = 0.1172\nsamples = 96\nvalue = [90, 6]"] ;
47 -> 48 ;
49 [label="Population <= 177.0\ngini = 0.2659\nsamples = 38\nvalue = [32, 6]"] ;
48 -> 49 ;
50 [label="Advertising <= 0.5\ngini = 0.4861\nsamples = 12\nvalue = [7, 5]"] ;
49 -> 50 ;
51 [label="gini = 0.0\nsamples = 6\nvalue = [6, 0]"] ;
50 -> 51 ;
52 [label="Advertising <= 10.5\ngini = 0.2778\nsamples = 6\nvalue = [1, 5]"] ;
50 -> 52 ;
53 [label="gini = 0.0\nsamples = 5\nvalue = [0, 5]"] ;
52 -> 53 ;
54 [label="gini = 0.0\nsamples = 1\nvalue = [1, 0]"] ;
52 -> 54 ;
55 [label="Education <= 10.5\ngini = 0.074\nsamples = 26\nvalue = [25, 1]"] ;
49 -> 55 ;
56 [label="Age <= 66.5\ngini = 0.4444\nsamples = 3\nvalue = [2, 1]"] ;
55 -> 56 ;
57 [label="gini = 0.0\nsamples = 1\nvalue = [0, 1]"] ;
56 -> 57 ;
58 [label="gini = 0.0\nsamples = 2\nvalue = [2, 0]"] ;
56 -> 58 ;
59 [label="gini = 0.0\nsamples = 23\nvalue = [23, 0]"] ;
55 -> 59 ;
60 [label="gini = 0.0\nsamples = 58\nvalue = [58, 0]"] ;
48 -> 60 ;
61 [label="Price <= 109.5\ngini = 0.3973\nsamples = 128\nvalue = [93, 35]"] ;
47 -> 61 ;
62 [label="ShelveLoc_ <= 2.5\ngini = 0.4082\nsamples = 21\nvalue = [6, 15]"] ;
61 -> 62 ;
63 [label="CompPrice <= 127.5\ngini = 0.1172\nsamples = 16\nvalue = [1, 15]"] ;
62 -> 63 ;
64 [label="CompPrice <= 126.0\ngini = 0.5\nsamples = 2\nvalue = [1, 1]"] ;
63 -> 64 ;
65 [label="gini = 0.0\nsamples = 1\nvalue = [0, 1]"] ;
64 -> 65 ;
66 [label="gini = 0.0\nsamples = 1\nvalue = [1, 0]"] ;
64 -> 66 ;
67 [label="gini = 0.0\nsamples = 14\nvalue = [0, 14]"] ;
63 -> 67 ;
68 [label="gini = 0.0\nsamples = 5\nvalue = [5, 0]"] ;
62 -> 68 ;
69 [label="Price <= 126.5\ngini = 0.304\nsamples = 107\nvalue = [87, 20]"] ;
61 -> 69 ;
70 [label="Age <= 49.5\ngini = 0.4444\nsamples = 42\nvalue = [28, 14]"] ;
69 -> 70 ;
71 [label="CompPrice <= 137.0\ngini = 0.48\nsamples = 20\nvalue = [8, 12]"] ;
70 -> 71 ;
72 [label="Income <= 95.0\ngini = 0.4898\nsamples = 14\nvalue = [8, 6]"] ;
71 -> 72 ;
73 [label="Population <= 194.0\ngini = 0.3967\nsamples = 11\nvalue = [8, 3]"] ;
72 -> 73 ;
74 [label="Population <= 89.5\ngini = 0.5\nsamples = 6\nvalue = [3, 3]"] ;
73 -> 74 ;
75 [label="gini = 0.0\nsamples = 3\nvalue = [3, 0]"] ;
74 -> 75 ;
76 [label="gini = 0.0\nsamples = 3\nvalue = [0, 3]"] ;
74 -> 76 ;
77 [label="gini = 0.0\nsamples = 5\nvalue = [5, 0]"] ;
73 -> 77 ;
78 [label="gini = 0.0\nsamples = 3\nvalue = [0, 3]"] ;
72 -> 78 ;
79 [label="gini = 0.0\nsamples = 6\nvalue = [0, 6]"] ;
71 -> 79 ;
80 [label="Price <= 125.0\ngini = 0.1653\nsamples = 22\nvalue = [20, 2]"] ;
70 -> 80 ;
81 [label="Advertising <= 11.0\ngini = 0.095\nsamples = 20\nvalue = [19, 1]"] ;
80 -> 81 ;
82 [label="gini = 0.0\nsamples = 18\nvalue = [18, 0]"] ;
81 -> 82 ;
83 [label="Advertising <= 12.5\ngini = 0.5\nsamples = 2\nvalue = [1, 1]"] ;
81 -> 83 ;
84 [label="gini = 0.0\nsamples = 1\nvalue = [0, 1]"] ;
83 -> 84 ;
85 [label="gini = 0.0\nsamples = 1\nvalue = [1, 0]"] ;
83 -> 85 ;
86 [label="Age <= 54.5\ngini = 0.5\nsamples = 2\nvalue = [1, 1]"] ;
80 -> 86 ;
87 [label="gini = 0.0\nsamples = 1\nvalue = [0, 1]"] ;
86 -> 87 ;
88 [label="gini = 0.0\nsamples = 1\nvalue = [1, 0]"] ;
86 -> 88 ;
89 [label="CompPrice <= 147.5\ngini = 0.1676\nsamples = 65\nvalue = [59, 6]"] ;
69 -> 89 ;
90 [label="Price <= 129.5\ngini = 0.0392\nsamples = 50\nvalue = [49, 1]"] ;
89 -> 90 ;
91 [label="Population <= 116.0\ngini = 0.2188\nsamples = 8\nvalue = [7, 1]"] ;
90 -> 91 ;
92 [label="gini = 0.0\nsamples = 1\nvalue = [0, 1]"] ;
91 -> 92 ;
93 [label="gini = 0.0\nsamples = 7\nvalue = [7, 0]"] ;
91 -> 93 ;
94 [label="gini = 0.0\nsamples = 42\nvalue = [42, 0]"] ;
90 -> 94 ;
95 [label="CompPrice <= 151.5\ngini = 0.4444\nsamples = 15\nvalue = [10, 5]"] ;
89 -> 95 ;
96 [label="Age <= 26.5\ngini = 0.4688\nsamples = 8\nvalue = [3, 5]"] ;
95 -> 96 ;
97 [label="gini = 0.0\nsamples = 2\nvalue = [2, 0]"] ;
96 -> 97 ;
98 [label="Population <= 172.5\ngini = 0.2778\nsamples = 6\nvalue = [1, 5]"] ;
96 -> 98 ;
99 [label="Price <= 138.5\ngini = 0.5\nsamples = 2\nvalue = [1, 1]"] ;
98 -> 99 ;
100 [label="gini = 0.0\nsamples = 1\nvalue = [1, 0]"] ;
99 -> 100 ;
101 [label="gini = 0.0\nsamples = 1\nvalue = [0, 1]"] ;
99 -> 101 ;
102 [label="gini = 0.0\nsamples = 4\nvalue = [0, 4]"] ;
98 -> 102 ;
103 [label="gini = 0.0\nsamples = 7\nvalue = [7, 0]"] ;
95 -> 103 ;
104 [label="Age <= 54.5\ngini = 0.4938\nsamples = 45\nvalue = [20, 25]"] ;
46 -> 104 ;
105 [label="CompPrice <= 130.5\ngini = 0.32\nsamples = 25\nvalue = [5, 20]"] ;
104 -> 105 ;
106 [label="Income <= 100.0\ngini = 0.4592\nsamples = 14\nvalue = [5, 9]"] ;
105 -> 106 ;
107 [label="Education <= 17.0\ngini = 0.4938\nsamples = 9\nvalue = [5, 4]"] ;
106 -> 107 ;
108 [label="ShelveLoc_ <= 2.5\ngini = 0.4898\nsamples = 7\nvalue = [3, 4]"] ;
107 -> 108 ;
109 [label="Income <= 89.0\ngini = 0.32\nsamples = 5\nvalue = [1, 4]"] ;
108 -> 109 ;
110 [label="gini = 0.0\nsamples = 4\nvalue = [0, 4]"] ;
109 -> 110 ;
111 [label="gini = 0.0\nsamples = 1\nvalue = [1, 0]"] ;
109 -> 111 ;
112 [label="gini = 0.0\nsamples = 2\nvalue = [2, 0]"] ;
108 -> 112 ;
113 [label="gini = 0.0\nsamples = 2\nvalue = [2, 0]"] ;
107 -> 113 ;
114 [label="gini = 0.0\nsamples = 5\nvalue = [0, 5]"] ;
106 -> 114 ;
115 [label="gini = 0.0\nsamples = 11\nvalue = [0, 11]"] ;
105 -> 115 ;
116 [label="CompPrice <= 122.5\ngini = 0.375\nsamples = 20\nvalue = [15, 5]"] ;
104 -> 116 ;
117 [label="gini = 0.0\nsamples = 10\nvalue = [10, 0]"] ;
116 -> 117 ;
118 [label="Price <= 125.0\ngini = 0.5\nsamples = 10\nvalue = [5, 5]"] ;
116 -> 118 ;
119 [label="gini = 0.0\nsamples = 5\nvalue = [0, 5]"] ;
118 -> 119 ;
120 [label="gini = 0.0\nsamples = 5\nvalue = [5, 0]"] ;
118 -> 120 ;
}